svm_type c_svc
kernel_type linear
nr_class 2
total_sv 205
rho -3.26844
label 1 -1
nr_sv 102 103
SV
1 1:0.059526138 2:0.75 3:0.16535433 
1 1:0.67788339 2:0.25 3:0.24409449 
1 1:0.64533508 2:0.25 3:0.24409449 
1 1:0.14057669 2:1 3:0.19685039 
1 1:0.071651973 2:0.75 3:0.16535433 
1 1:0.12021281 2:1 3:0.19685039 
1 1:0.67115241 2:0.25 3:0.24409449 
1 1:0.37369379 2:1 3:0.19685039 
1 1:0.084531955 2:1 3:0.19685039 
1 1:0.12502913 2:1 3:0.19685039 
1 1:0.022453034 2:0.75 3:0.12598425 
1 1:0.71292591 2:0.25 3:0.24409449 
1 1:0.49251539 2:0.75 3:0.21259843 
1 1:0.11864711 2:1 
1 1:0.64452237 2:0.25 3:0.24409449 
1 1:0.72052592 2:0.25 3:0.24409449 
1 1:0.83302277 2:1 3:0.15748031 
1 1:0.024656856 2:0.75 3:0.12598425 
1 1:0.095206961 2:1 3:0.19685039 
1 1:0.37636259 2:1 3:0.19685039 
1 1:0.46176589 2:0.75 3:0.21259843 
1 1:0.074552648 2:0.75 3:0.16535433 
1 1:0.45758882 2:0.75 3:0.21259843 
1 1:0.10286535 2:0.75 3:0.16535433 
1 1:0.080586754 2:0.75 3:0.16535433 
1 1:0.011313165 2:0.75 3:0.12598425 
1 1:0.10576713 2:1 3:0.19685039 
1 1:0.62665272 2:0.25 3:0.24409449 
1 1:0.088651665 2:1 3:0.19685039 
1 1:0.29067022 2:1 3:0.19685039 
1 1:0.59131974 2:0.75 3:0.21259843 
1 1:0.087200783 2:1 3:0.19685039 
1 1:0.67428601 2:0.25 3:0.24409449 
1 1:0.11591984 2:1 3:0.19685039 
1 1:0.023148594 2:0.75 3:0.12598425 
1 1:0.085808344 2:0.75 3:0.16535433 
1 1:0.13106216 2:1 3:0.19685039 
1 1:0.65229678 2:0.25 3:0.24409449 
1 1:0.37792942 2:1 3:0.19685039 
1 1:0.12067758 2:1 3:0.19685039 
1 1:0.10112531 2:1 3:0.19685039 
1 1:0.66111559 2:0.25 3:0.24409449 
1 1:0.084300116 2:1 3:0.19685039 
1 1:0.72000366 2:1 3:0.15748031 
1 1:0.13396281 2:1 3:0.19685039 
1 1:0.079542227 2:0.75 3:0.16535433 
1 1:0.082906567 2:1 
1 1:0.088593081 2:1 3:0.19685039 
1 1:0.13576145 2:1 
1 1:0.67045683 2:0.25 3:0.24409449 
1 1:0.67823118 2:0.25 3:0.24409449 
1 1:0.33870867 2:1 3:0.19685039 
1 1:0.66488749 2:0.25 3:0.24409449 
1 1:0.078034021 2:0.75 3:0.16535433 
1 1:0.69273531 2:0.25 3:0.32283464 
1 1:0.65194899 2:0.25 3:0.24409449 
1 1:0.34236449 2:1 3:0.19685039 
1 1:0.10588195 2:1 3:0.19685039 
1 1:0.080412418 2:0.75 3:0.16535433 
1 1:0.091377676 2:1 
1 1:0.087491058 2:1 3:0.19685039 
1 1:0.12067758 2:1 3:0.19685039 
1 1:0.073798381 2:0.75 3:0.16535433 
1 1:0.4982008 2:0.75 3:0.21259843 
1 1:0.082733311 2:0.75 3:0.16535433 
1 1:0.39533547 2:1 3:0.19685039 
1 1:0.088302664 2:1 3:0.19685039 
1 1:0.66587347 2:0.25 3:0.24409449 
1 1:0.097527862 2:1 
1 1:0.68641192 2:0.25 3:0.24409449 
1 1:0.67683893 2:0.25 3:0.24409449 
1 1:0.71054649 2:0.25 3:0.24409449 
1 1:0.04635575 2:0.75 3:0.16535433 
1 1:0.2856805 2:1 3:0.19685039 
1 1:0.061847102 2:0.75 3:0.16535433 
1 1:0.093408324 2:1 
1 1:0.32658401 2:1 3:0.19685039 
1 1:0.63454294 2:0.25 3:0.24409449 
1 1:0.086213589 2:1 3:0.19685039 
1 1:0.091842599 2:1 3:0.19685039 
1 1:0.4084473 2:1 3:0.19685039 
1 1:0.089405775 2:1 3:0.19685039 
1 1:0.038929168 2:0.75 3:0.12598425 
1 1:0.068576969 2:0.75 3:0.16535433 
1 1:0.69662321 2:0.25 3:0.24409449 
1 1:0.6974932 2:0.25 3:0.24409449 
1 1:0.072347507 2:0.75 3:0.16535433 
1 1:0.65264446 2:1 3:0.11023622 
1 1:0.09195853 2:0.75 3:0.16535433 
1 1:0.070491537 2:0.75 3:0.16535433 
1 1:0.099210598 2:1 3:0.19685039 
1 1:0.66651171 2:0.25 3:0.24409449 
1 1:0.34804991 2:1 3:0.19685039 
1 1:0.1100015 2:1 3:0.19685039 
1 1:0.082907818 2:1 3:0.19685039 
0.2248812738640684 1:0.60425836 2:0.25 3:0.32283464 
1 1:0.12485462 2:1 3:0.19685039 
1 1:0.72168636 2:0.25 3:0.24409449 
1 1:0.66494489 2:0.25 3:0.24409449 
1 1:0.68002987 2:0.25 3:0.24409449 
1 1:0.66651171 2:0.25 3:0.24409449 
1 1:0.087142207 2:0.75 3:0.16535433 
-1 1:0.20538294 2:1 
-1 1:0.14835227 2:1 
-1 1:0.69053036 2:0.25 3:0.24409449 
-1 1:0.12450688 2:1 3:0.19685039 
-1 1:0.13158442 2:1 
-1 1:0.60506976 2:0.75 3:0.21259843 
-1 1:0.68768823 2:0.25 3:0.24409449 
-1 1:0.076176777 2:0.75 3:0.16535433 
-1 1:0.46495682 2:0.5 3:1 
-1 1:0.65983927 2:0.75 3:0.21259843 
-1 1:0.14092571 2:1 
-1 1:0.20375864 2:1 
-1 1:0.089694962 2:1 3:0.19685039 
-1 1:0.52274281 2:0.75 3:0.21259843 
-1 1:0.59996414 2:0.75 3:0.21259843 
-0.2080899738777119 1:0.66378438 2:0.75 3:0.21259843 
-1 1:0.56097645 2:0.75 3:0.21259843 
-1 1:0.58975297 2:0.75 3:0.21259843 
-1 1:0.12961252 2:1 
-1 1:0.1100601 2:1 
-1 1:0.14637911 2:1 
-1 1:0.14289886 2:1 
-1 1:0.15705395 2:1 
-1 1:0.13895255 2:1 
-1 1:0.60715884 2:0.75 3:0.21259843 
-1 1:0.1984213 2:1 
-1 1:0.50058031 2:0.25 3:0.24409449 
-1 1:0.1850775 2:1 
-1 1:0.62978518 2:0.25 3:0.24409449 
-1 1:0.11771849 2:1 
-1 1:0.35802922 2:0.5 3:1 
-1 1:0.3700965 2:0.5 3:1 
-1 1:0.16500278 2:1 
-1 1:0.65856284 2:0.25 3:0.24409449 
-1 1:0.70288932 2:0.25 3:0.24409449 
-1 1:0.11116195 2:1 
-1 1:0.71501499 2:0.25 3:0.24409449 
-1 1:0.18681771 2:1 
-1 1:0.13924283 2:1 
-1 1:0.11301918 2:1 
-1 1:0.43838418 2:0.5 3:1 
-1 1:0.20648606 2:1 
-1 1:0.72168636 2:0.25 3:0.24409449 
-1 1:0.16308823 2:1 
-1 1:0.15206547 2:1 
-1 1:0.39771369 2:0.5 3:1 
-1 1:0.42782521 2:0.75 3:0.21259843 
-1 1:0.6143536 2:0.25 3:0.24409449 
-1 1:0.19691294 2:1 
-1 1:0.15374708 2:1 3:0.19685039 
-1 1:0.67631668 2:0.25 3:0.24409449 
-1 1:0.54885048 2:0.75 3:0.21259843 
-1 1:0.14986049 2:1 
-1 1:0.1362264 2:1 
-1 1:0.12920617 2:1 
-1 1:0.64933765 2:0.25 3:0.24409449 
-1 1:0.38872039 2:0.75 3:0.21259843 
-1 1:0.15809849 2:1 
-1 1:0.20010403 2:1 
-1 1:0.18710813 2:1 
-1 1:0.20637015 2:1 
-1 1:0.59305984 2:0.25 3:0.24409449 
-1 1:0.3626712 2:0.5 3:1 
-0.2290838117342182 1:0.16494435 2:1 3:0.19685039 
-1 1:0.15873684 2:1 
-1 1:0.16714934 2:1 
-1 1:0.70143843 2:0.25 3:0.24409449 
-1 1:0.11330851 2:1 
-1 1:0.64922172 2:0.75 3:0.21259843 
-1 1:0.32820818 2:0.5 3:1 
-1 1:0.089637615 2:1 
-1 1:0.53823304 2:0.25 3:0.24409449 
-1 1:0.67991394 2:0.25 3:0.24409449 
-1 1:0.18055159 2:1 
-1 1:0.1492223 2:1 
-1 1:0.18118978 2:1 
-1 1:0.12079366 2:1 3:0.19685039 
-1 1:0.64150578 2:0.75 3:0.21259843 
-1 1:0.43583137 2:0.5 3:1 
-1 1:0.52517962 2:0.75 3:0.21259843 
-1 1:0.14800325 2:1 3:0.19685039 
-1 1:0.13605189 2:1 
-1 1:0.64388418 2:0.75 3:0.21259843 
-1 1:0.11023333 2:1 
-1 1:0.20764652 2:1 
-1 1:0.017636629 2:0.5 3:0.10236221 
-1 1:0.20271537 2:1 
-1 1:0.20300454 2:1 
-1 1:0.18826859 2:1 
-1 1:0.3898235 2:0.5 3:1 
-1 1:0.15380569 2:1 
-1 1:0.52726763 2:0.75 3:0.21259843 
-1 1:0.60901499 2:0.75 3:0.21259843 
-1 1:0.66337806 2:0.25 3:0.24409449 
-1 1:0.14429115 2:1 3:0.19685039 
-1 1:0.13901098 2:1 
-1 1:0.39771369 2:0.5 3:1 
-1 1:0.39446419 2:0.75 3:0.21259843 
-0.7877074882521382 1:0.20845921 2:1 
-1 1:0.63112015 2:0.25 3:0.24409449 
-1 1:0.13732825 2:1 
-1 1:0.54275894 2:0.25 3:0.24409449 
-1 1:0.13262895 2:1 
